digraph Tree {
node [shape=box, style="filled, rounded", color="black", fontname="helvetica"] ;
edge [fontname="helvetica"] ;
0 [label="color_intensity <= 3.82\ngini = 0.659\nsamples = 151\nvalue = [50, 60, 41]\nclass = class_1", fillcolor="#ebfcf3"] ;
1 [label="od280/od315_of_diluted_wines <= 3.82\ngini = 0.038\nsamples = 52\nvalue = [1, 51, 0]\nclass = class_1", fillcolor="#3de683"] ;
0 -> 1 [labeldistance=2.5, labelangle=45, headlabel="True"] ;
2 [label="gini = 0.0\nsamples = 51\nvalue = [0, 51, 0]\nclass = class_1", fillcolor="#39e581"] ;
1 -> 2 ;
3 [label="gini = 0.0\nsamples = 1\nvalue = [1, 0, 0]\nclass = class_0", fillcolor="#e58139"] ;
1 -> 3 ;
4 [label="flavanoids <= 1.58\ngini = 0.575\nsamples = 99\nvalue = [49, 9, 41]\nclass = class_0", fillcolor="#fbeee4"] ;
0 -> 4 [labeldistance=2.5, labelangle=-45, headlabel="False"] ;
5 [label="gini = 0.046\nsamples = 42\nvalue = [0, 1, 41]\nclass = class_2", fillcolor="#843ee6"] ;
4 -> 5 ;
6 [label="gini = 0.241\nsamples = 57\nvalue = [49, 8, 0]\nclass = class_0", fillcolor="#e99659"] ;
4 -> 6 ;
}