digraph Tree {
node [shape=box, style="filled, rounded", color="black", fontname="helvetica"] ;
edge [fontname="helvetica"] ;
0 [label="MedInc <= 5.032\nsquared_error = 1.34\nsamples = 14448\nvalue = 2.069", fillcolor="#f8dfcc"] ;
1 [label="MedInc <= 3.074\nsquared_error = 0.835\nsamples = 11340\nvalue = 1.73", fillcolor="#fbebe0"] ;
0 -> 1 [labeldistance=2.5, labelangle=45, headlabel="True"] ;
2 [label="AveRooms <= 4.201\nsquared_error = 0.565\nsamples = 5490\nvalue = 1.356", fillcolor="#fef9f5"] ;
1 -> 2 ;
3 [label="squared_error = 0.701\nsamples = 2018\nvalue = 1.664", fillcolor="#fbede3"] ;
2 -> 3 ;
4 [label="squared_error = 0.398\nsamples = 3472\nvalue = 1.176", fillcolor="#ffffff"] ;
2 -> 4 ;
5 [label="AveOccup <= 2.35\nsquared_error = 0.833\nsamples = 5850\nvalue = 2.081", fillcolor="#f8decc"] ;
1 -> 5 ;
6 [label="squared_error = 1.3\nsamples = 1270\nvalue = 2.822", fillcolor="#f3c4a2"] ;
5 -> 6 ;
7 [label="squared_error = 0.509\nsamples = 4580\nvalue = 1.875", fillcolor="#fae6d7"] ;
5 -> 7 ;
8 [label="MedInc <= 6.868\nsquared_error = 1.226\nsamples = 3108\nvalue = 3.308", fillcolor="#efb286"] ;
0 -> 8 [labeldistance=2.5, labelangle=-45, headlabel="False"] ;
9 [label="AveOccup <= 2.671\nsquared_error = 0.904\nsamples = 2201\nvalue = 2.918", fillcolor="#f2c09c"] ;
8 -> 9 ;
10 [label="squared_error = 1.019\nsamples = 782\nvalue = 3.467", fillcolor="#eeac7d"] ;
9 -> 10 ;
11 [label="squared_error = 0.583\nsamples = 1419\nvalue = 2.616", fillcolor="#f4cbad"] ;
9 -> 11 ;
12 [label="MedInc <= 8.163\nsquared_error = 0.744\nsamples = 907\nvalue = 4.255", fillcolor="#e89050"] ;
8 -> 12 ;
13 [label="squared_error = 0.699\nsamples = 467\nvalue = 3.871", fillcolor="#eb9e66"] ;
12 -> 13 ;
14 [label="squared_error = 0.469\nsamples = 440\nvalue = 4.662", fillcolor="#e58139"] ;
12 -> 14 ;
}